time,V,V_dot,stability_bound,task_error,u_0 (A Flexor),u_1 (A Extensor),u_2 (B Flexor),u_3 (B Extensor),tau_0,tau_1,tau_2,tau_3
0.0,66.58773104653682,[-1585.68891977],633.90211513941,0.18601075237738274,0.9999999969297665,-0.0,0.9999999975805187,-0.0,0.09999999969297665,0.09999999969297665,0.09999999975805188,0.09999999975805188
0.002,64.70271566383273,[-1616.10342438],540.6537644125265,0.18601075237738274,1.0000000000341303,-0.0,0.9999999996258836,-0.0,0.10000000000341303,0.10000000000341303,0.09999999996258836,0.09999999996258836
0.004,63.0573792294284,[-2195.45656898],-93.54392799749894,0.1856983700161267,1.0000000002451808,-0.0,0.9999999975775322,-0.0,0.10000000002451809,0.10000000002451809,0.09999999975775323,0.09999999975775323
0.006,61.49130850321714,[-2425.67472816],-375.9644447173864,0.18513553555889822,1.0000000002265959,-0.0,0.999999998163738,-0.0,0.10000000002265959,0.10000000002265959,0.09999999981637381,0.09999999981637381
0.008,59.93612419638628,[-2552.9512941],-555.0804875515794,0.18435512890786154,1.0000000000487077,-0.0,0.9999999996529423,-0.0,0.10000000000487078,0.10000000000487078,0.09999999996529424,0.09999999996529424
0.01,58.360010911109946,[-2633.4516484],-688.1179513652346,0.18337635526744858,1.0000000002768852,-0.0,0.9999999981972121,-0.0,0.10000000002768852,0.10000000002768852,0.09999999981972121,0.09999999981972121
0.012,56.747766614305206,[-2685.69669183],-794.1044713574693,0.1822111185847109,0.9999999997154949,-0.0,0.9999999994010106,-0.0,0.0999999999715495,0.0999999999715495,0.09999999994010106,0.09999999994010106
0.014,55.0928121013761,[-2718.01151126],-881.5844412106134,0.18086709502383222,0.9999999992313786,-0.0,0.9999999985656906,-0.0,0.09999999992313786,0.09999999992313786,0.09999999985656906,0.09999999985656906
0.016,53.39342209724211,[-2688.99631133],-909.2155747445648,0.1793494136354659,0.9999999982996005,-0.0,0.9638966541542052,-0.0,0.09999999982996005,0.09999999982996005,0.09638966541542053,0.09638966541542053
0.018000000000000002,51.69296102971866,[-2609.58989162],-886.491190607891,0.17766164083839808,0.9999999867054389,-0.0,0.8972528421265401,-0.0,0.09999999867054389,0.09999999867054389,0.08972528421265402,0.08972528421265402
0.020000000000000004,50.01631265998974,[-2530.02618289],-862.8157608767447,0.17581623407494668,0.9999999933704253,-0.0,0.8586307116302849,-0.0,0.09999999933704254,0.09999999933704254,0.08586307116302849,0.08586307116302849
0.022000000000000006,48.31889492015005,[-2446.79766134],-836.1678306633695,0.1738301743385272,0.9999999975513781,-0.0,0.847514515858488,-0.0,0.09999999975513782,0.09999999975513782,0.0847514515858488,0.0847514515858488
0.024000000000000007,46.57666316966749,[-2357.98429416],-805.428855168274,0.17170745871224197,0.9999999998254,-0.0,0.8302528312688728,-0.0,0.09999999998254,0.09999999998254,0.08302528312688728,0.08302528312688728
0.02600000000000001,44.81042034186107,[-2265.37354562],-771.6928675546776,0.16944436860201328,0.9999999999896728,-0.0,0.7978337909395526,-0.0,0.09999999999896729,0.09999999999896729,0.07978337909395528,0.07978337909395528
0.02800000000000001,43.0425366850783,[-2170.92948131],-736.178258471555,0.16704168489900945,0.999999999945481,-0.0,0.7657988916567869,-0.0,0.09999999999454812,0.09999999999454812,0.0765798891656787,0.0765798891656787
0.030000000000000013,41.27356850819812,[-2074.75509837],-698.9694814323512,0.16450522000998505,0.99999999979273,-0.0,0.7427274012547904,-0.0,0.099999999979273,0.099999999979273,0.07427274012547905,0.07427274012547905
0.032000000000000015,39.49855520443261,[-1976.42141098],-659.8029041643389,0.1618393447873674,0.9999999994396711,-0.0,0.722268470529369,-0.0,0.09999999994396712,0.09999999994396712,0.0722268470529369,0.0722268470529369
0.034000000000000016,37.722453856643114,[-1876.343278],-618.9281494468337,0.15904517653673755,0.9999999997961937,-0.0,0.6980815689757792,-0.0,0.09999999997961938,0.09999999997961938,0.06980815689757792,0.06980815689757792
0.03600000000000002,35.955459395325335,[-1775.40652691],-576.8912136766489,0.15612376021461835,0.9999999911479539,-0.0,0.6718866340272096,-0.0,0.0999999991147954,0.0999999991147954,0.06718866340272096,0.06718866340272096
0.03800000000000002,34.20420875603883,[-1674.15884407],-534.0185521652006,0.15307790620499043,0.9999999948525828,-0.0,0.647471458043947,-0.0,0.09999999948525828,0.09999999948525828,0.06474714580439471,0.06474714580439471
0.04000000000000002,32.47202297816948,[-1572.80613809],-490.40537209666013,0.1499109413786044,0.9999999994725465,-0.0,0.624837104259907,-0.0,0.09999999994725466,0.09999999994725466,0.062483710425990706,0.062483710425990706
0.04200000000000002,30.76320778477826,[-1471.62420661],-446.1839471102687,0.14662540441518154,0.9999999984957058,-0.0,0.6019128287219363,-0.0,0.09999999984957059,0.09999999984957059,0.060191282872193635,0.060191282872193635
0.044000000000000025,29.083893463727463,[-1371.05451874],-401.5914032716797,0.14322340039801257,0.9999999985321331,-0.0,0.5781307962637953,-0.0,0.09999999985321331,0.09999999985321331,0.05781307962637953,0.05781307962637953
0.04600000000000003,27.44015866600804,[-1271.51239431],-356.840438672401,0.1397074073517308,0.9999999997884169,-0.0,0.554421053425439,-0.0,0.0999999999788417,0.0999999999788417,0.0554421053425439,0.0554421053425439
0.04800000000000003,25.837200002388055,[-1173.28940254],-312.0494024588953,0.13608030321043887,0.9999999993797137,-0.0,0.5312881465269964,-0.0,0.09999999993797137,0.09999999993797137,0.05312881465269964,0.05312881465269964
0.05000000000000003,24.280001553888944,[-1076.62375379],-267.29036859133305,0.13234495070073632,0.9999999960174121,-0.0,0.5083115614618671,-0.0,0.09999999960174122,0.09999999960174122,0.05083115614618671,0.05083115614618671
0.05200000000000003,22.77383850138374,[-981.76282353],-222.63487345752696,0.12850408945347191,0.9999999940712802,-0.0,0.4850405849023706,-0.0,0.09999999940712802,0.09999999940712802,0.04850405849023706,0.04850405849023706
0.054000000000000034,21.324060611547928,[-896.00716344],-185.2051430399149,0.12456054784769535,0.0,0.9999999967360677,0.0,0.02888840664428437,-0.09999999967360677,-0.09999999967360677,-0.0028888406644284373,-0.0028888406644284373
0.056000000000000036,20.00517436780965,[-839.68742263],-172.84827692641215,0.12051737836056259,0.0,0.999999978994597,0.0,0.0037776556661536734,-0.09999999789945971,-0.09999999789945971,-0.0003777655666153674,-0.0003777655666153674
0.05800000000000004,18.748945434166412,[-786.32242934],-161.3575815301931,0.11665884392630599,0.0,0.014863143499840732,0.16694125178633548,-0.0,-0.0014863143499840733,-0.0014863143499840733,0.01669412517863355,0.01669412517863355
0.06000000000000004,17.554234830075377,[-727.91034217],-142.76918116384024,0.11296593995000034,0.0,0.9999999994267165,0.0,0.09683194860721712,-0.09999999994267166,-0.09999999994267166,-0.009683194860721714,-0.009683194860721714
0.06200000000000004,16.46299706757156,[-680.76487331],-131.99830438677668,0.10930954801514942,0.0,0.36846826110897,0.14363938826849287,-0.0,-0.036846826110897006,-0.036846826110897006,0.014363938826849288,0.014363938826849288
0.06400000000000004,15.37933100337469,[-629.29362022],-116.64925340091969,0.105821377211453,0.0,0.9999999777767179,0.0,0.048733203158140344,-0.0999999977776718,-0.0999999977776718,-0.004873320315814035,-0.004873320315814035
0.06600000000000004,14.398262187072472,[-586.30081141],-106.358738497214,0.10237673412366094,0.0,0.44617567874633696,0.06668597107054429,-0.0,-0.044617567874633696,-0.044617567874633696,0.00666859710705443,0.00666859710705443
0.06800000000000005,13.466901434656315,[-543.44047577],-94.54376128159635,0.09907826234714787,0.0,0.7697157556630679,0.0,0.046322869966523794,-0.0769715755663068,-0.0769715755663068,-0.00463228699665238,-0.00463228699665238
0.07000000000000005,12.611343675128165,[-505.77528869],-85.39716617942008,0.09585021293436846,0.0,0.5478965338261369,0.03248569496315788,-0.0,-0.05478965338261369,-0.05478965338261369,0.0032485694963157886,0.0032485694963157886
0.07200000000000005,11.79236941984507,[-469.03300426],-75.95402360000423,0.09274313604572998,0.0,0.7285613406533241,0.0,0.019865283313075896,-0.07285613406533241,-0.07285613406533241,-0.00198652833130759,-0.00198652833130759
0.07400000000000005,11.032321620145987,[-435.70061851],-67.95656449859348,0.089712605406603,0.0,0.6244783497751085,0.0,0.005536562799108531,-0.06244783497751086,-0.06244783497751086,-0.0005536562799108531,-0.0005536562799108531
0.07600000000000005,10.321318472271084,[-404.57137324],-60.52742416476997,0.08678543661538703,0.0,0.6255780428724225,0.0,0.024327326854737437,-0.06255780428724225,-0.06255780428724225,-0.0024327326854737437,-0.0024327326854737437
0.07800000000000006,9.660353747308394,[-375.87711535],-53.86532377596643,0.08394858278088928,0.0,0.6117332592165396,0.0,0.022653019825201032,-0.06117332592165397,-0.06117332592165397,-0.0022653019825201034,-0.0022653019825201034
0.08000000000000006,9.040680040283412,[-349.14009457],-47.78409322721188,0.08120486139080103,0.0,0.6148671962793202,0.0,0.023634931689755615,-0.06148671962793202,-0.06148671962793202,-0.0023634931689755618,-0.0023634931689755618
0.08200000000000006,8.460588107024517,[-324.29802997],-42.27842639711645,0.07854933330680373,0.0,0.6105161629346204,0.0,0.02914619025390523,-0.06105161629346204,-0.06105161629346204,-0.0029146190253905233,-0.0029146190253905233
0.08400000000000006,7.919708739118144,[-301.2826616],-37.29237029744647,0.07598022101030656,0.0,0.593053538964735,0.0,0.03402483176819628,-0.059305353896473505,-0.059305353896473505,-0.0034024831768196284,-0.0034024831768196284
0.08600000000000006,7.4158840697608674,[-279.96189555],-32.76575989083457,0.07349730246531204,0.0,0.5786570573438838,0.0,0.03609916850821237,-0.05786570573438839,-0.05786570573438839,-0.003609916850821237,-0.003609916850821237
0.08800000000000006,6.94571475171807,[-260.18224002],-28.658414966067653,0.07109891917718966,0.0,0.5712329244234093,0.0,0.03665575783299144,-0.057123292442340934,-0.057123292442340934,-0.0036655757832991438,-0.0036655757832991438
0.09000000000000007,6.506517352721953,[-241.81968313],-24.935771366885177,0.06878241392333564,0.0,0.5646583939541348,0.0,0.038229479488052234,-0.05646583939541348,-0.05646583939541348,-0.0038229479488052238,-0.0038229479488052238
0.09200000000000007,6.0967956497868885,[-224.78098381],-21.554462145004408,0.06654539929790385,0.0,0.5545033422900633,0.0,0.040660042204292306,-0.05545033422900633,-0.05545033422900633,-0.004066004220429231,-0.004066004220429231
0.09400000000000007,5.715108996392206,[-208.9770784],-18.473445182562784,0.0643862888049886,0.0,0.5425248431929679,0.0,0.0422591228616,-0.054252484319296794,-0.054252484319296794,-0.00422591228616,-0.00422591228616
0.09600000000000007,5.359492429901004,[-194.31599763],-15.666249963070896,0.06230361865978539,0.0,0.5319547200475826,0.0,0.04268264623272988,-0.053195472004758264,-0.053195472004758264,-0.004268264623272989,-0.004268264623272989
0.09800000000000007,5.027939209044091,[-180.7102289],-13.112255267737794,0.060295441611111736,0.0,0.5230121022842357,0.0,0.042920224653942095,-0.05230121022842357,-0.05230121022842357,-0.00429202246539421,-0.00429202246539421
0.10000000000000007,4.718864882575491,[-168.0811445],-10.785648411389843,0.05835956742403448,0.0,0.5140186460183992,0.0,0.043539354960148574,-0.051401864601839924,-0.051401864601839924,-0.004353935496014857,-0.004353935496014857
0.10200000000000008,4.430965775820239,[-156.35759638],-8.658737184044014,0.056494038404444856,0.0,0.5042688848480357,0.0,0.044147829514212616,-0.05042688848480357,-0.05042688848480357,-0.004414782951421262,-0.004414782951421262
0.10400000000000008,4.162906002062188,[-145.47413663],-6.710603229254218,0.05469715867469812,0.0,0.494424395574411,0.0,0.0442923346634933,-0.0494424395574411,-0.0494424395574411,-0.00442923346634933,-0.00442923346634933
0.10600000000000008,3.9132934528757053,[-135.3700139],-4.9268987980615435,0.05296721711767643,0.0,0.4851163260011899,0.0,0.04407897691910112,-0.048511632600118995,-0.048511632600118995,-0.004407897691910113,-0.004407897691910113
0.10800000000000008,3.6808421543686647,[-125.98832752],-3.2935890457198695,0.05130236918065566,0.0,0.4762530635826382,0.0,0.04384118389245599,-0.04762530635826382,-0.04762530635826382,-0.0043841183892455995,-0.0043841183892455995
0.11000000000000008,3.4644319063530573,[-117.27591456],-1.7948510125100086,0.04970076200517619,0.0,0.46745588902413465,0.0,0.0436461604071171,-0.04674558890241347,-0.04674558890241347,-0.00436461604071171,-0.00436461604071171
0.11200000000000009,3.2630306751228235,[-109.18386621],-0.41617704323404325,0.04816065611188261,0.0,0.45867791795155116,0.0,0.04334989176172574,-0.04586779179515512,-0.04586779179515512,-0.004334989176172574,-0.004334989176172574
0.11400000000000009,3.075632297736193,[-101.66753538],0.8535412128901214,0.04668039551889387,0.0,0.45007901754173635,0.0,0.042872016705460377,-0.045007901754173636,-0.045007901754173636,-0.004287201670546038,-0.004287201670546038
0.11600000000000009,2.9012725539433144,[-94.68573571],2.0233494202437186,0.045258332114963905,0.0,0.4417443895428205,0.0,0.042282784869854706,-0.04417443895428205,-0.04417443895428205,-0.00422827848698547,-0.00422827848698547
0.11800000000000009,2.7390644165654434,[-88.19994789],3.1021993265709398,0.04389281136930208,0.0,0.4336516292661062,0.0,0.0416710060381333,-0.04336516292661062,-0.04336516292661062,-0.00416710060381333,-0.00416710060381333
0.12000000000000009,2.5881963030898687,[-82.17425033],4.098959772724655,0.04258221098636536,0.0,0.42572608246944904,0.0,0.04103315485601586,-0.04257260824694491,-0.04257260824694491,-0.004103315485601586,-0.004103315485601586
0.1220000000000001,2.4479072328093263,[-76.57554817],5.021359591799339,0.04132496648935788,0.0,0.4179699027305188,0.0,0.04033467183931196,-0.041796990273051886,-0.041796990273051886,-0.0040334671839311964,-0.0040334671839311964
0.1240000000000001,2.3174764209233274,[-71.37339965],5.875814379828455,0.04011955468034081,0.0,0.4104145505802212,0.0,0.0395725193100384,-0.04104145505802212,-0.04104145505802212,-0.00395725193100384,-0.00395725193100384
0.12600000000000008,2.196228507936971,[-66.53958923],6.668027697911214,0.03896447559453805,0.0,0.40306887553902193,0.0,0.03877328736459935,-0.040306887553902195,-0.040306887553902195,-0.003877328736459935,-0.003877328736459935
0.12800000000000009,2.083537432936821,[-62.0478353],7.403412467347934,0.037858252953010714,0.0,0.3959200209382628,0.0,0.03795577898434941,-0.03959200209382628,-0.03959200209382628,-0.003795577898434941,-0.003795577898434941
0.1300000000000001,1.9788213909780583,[-57.87372851],8.086984525162634,0.036799443240071734,0.0,0.3889576302332594,0.0,0.03711902956215521,-0.038895763023325945,-0.038895763023325945,-0.0037119029562155213,-0.0037119029562155213
0.1320000000000001,1.88153581249037,[-53.99469252],8.72316789505517,0.03578663769296903,0.0,0.3821818783238604,0.0,0.036258817607909076,-0.03821818783238604,-0.03821818783238604,-0.0036258817607909078,-0.0036258817607909078
0.1340000000000001,1.791170637369205,[-50.38983456],9.31585336041163,0.0348184568436985,0.0,0.37559218817936174,0.0,0.03537916040415971,-0.037559218817936176,-0.037559218817936176,-0.0035379160404159712,-0.0035379160404159712
0.1360000000000001,1.7072501454142652,[-47.03975112],9.86858705815817,0.0338935461607249,0.0,0.36919191840161536,0.0,0.03449025968548909,-0.036919191840161535,-0.036919191840161535,-0.003449025968548909,-0.003449025968548909
0.1380000000000001,1.6293317371845661,[-43.92640394],10.384653970776817,0.03301057568469328,0.0,0.36297124168253986,0.0,0.033595824206508626,-0.03629712416825399,-0.03629712416825399,-0.003359582420650863,-0.003359582420650863
0.1400000000000001,1.5570027950788328,[-41.03305194],10.867041228560446,0.03216824170834247,0.0,0.3569256827139727,0.0,0.03269704963801484,-0.03569256827139727,-0.03569256827139727,-0.0032697049638014844,-0.0032697049638014844
0.1420000000000001,1.4898781333166515,[-38.34416729],11.318437157022338,0.03136526501917013,0.0,0.3510528587411803,0.0,0.03179521449824622,-0.035105285874118035,-0.035105285874118035,-0.003179521449824622,-0.003179521449824622
0.1440000000000001,1.4275983343079988,[-35.84533708],11.741274063613794,0.030600388722915213,0.0,0.3453499061525519,0.0,0.030893274442924803,-0.03453499061525519,-0.03453499061525519,-0.0030893274442924806,-0.0030893274442924806
0.1460000000000001,1.3698284913775904,[-33.52316872],12.13778099044493,0.029872376761740753,0.0,0.3398129878238738,0.0,0.029994413861492864,-0.033981298782387384,-0.033981298782387384,-0.0029994413861492864,-0.0029994413861492864
0.1480000000000001,1.316256663438769,[-31.36521521],12.510006900031236,0.02918001334025907,0.0,0.33443805063248266,0.0,0.029100652885077277,-0.03344380506324827,-0.03344380506324827,-0.002910065288507728,-0.002910065288507728
0.1500000000000001,1.2665921470672394,[-29.3599132],12.859825039392604,0.028522102442440713,0.0,0.329221410434461,0.0,0.028213234324151525,-0.0329221410434461,-0.0329221410434461,-0.002821323432415153,-0.002821323432415153
0.1520000000000001,1.2205639666908574,[-27.49652104],13.188944519840454,0.027897467012661995,0.0,0.3241596263439925,0.0,0.027333514372984556,-0.03241596263439925,-0.03241596263439925,-0.002733351437298456,-0.002733351437298456
0.1540000000000001,1.177919640946353,[-25.76505644],13.498931592206617,0.027304948133153754,0.0,0.31924920102444504,0.0,0.026463068643239534,-0.03192492010244451,-0.03192492010244451,-0.0026463068643239537,-0.0026463068643239537
0.1560000000000001,1.1384240277062236,[-24.15623961],13.791227976488017,0.02674340455120539,0.0,0.31448656704061534,0.0,0.02560328636775094,-0.03144865670406154,-0.03144865670406154,-0.002560328636775094,-0.002560328636775094
0.1580000000000001,1.101858150375677,[-22.66144373],14.067161285640076,0.026211712505572502,0.0,0.3098682393475667,0.0,0.024755207483659482,-0.03098682393475667,-0.03098682393475667,-0.0024755207483659484,-0.0024755207483659484
0.16000000000000011,1.0680180713258647,[-21.2726496],14.32795277933861,0.025708765656527726,0.0,0.3053908729583111,0.0,0.023919697479187745,-0.03053908729583111,-0.03053908729583111,-0.0023919697479187745,-0.0023919697479187745
0.16200000000000012,1.0367138772628652,[-19.98240242],14.574726825335922,0.025233475084021132,0.0,0.3010512080610588,0.0,0.023097600328446214,-0.03010512080610588,-0.03010512080610588,-0.0023097600328446217,-0.0023097600328446217
0.16400000000000012,1.007768757120605,[-18.78377099],14.808520913711412,0.024784769439671974,0.0,0.2968460258369285,0.0,0.022289708891737182,-0.02968460258369285,-0.02968460258369285,-0.0022289708891737184,-0.0022289708891737184
0.16600000000000012,0.9810181280259987,[-17.6703105],15.030293768484867,0.024361595288670535,0.0,0.29277216067398276,0.0,0.021496688377571856,-0.029277216067398276,-0.029277216067398276,-0.0021496688377571857,-0.0021496688377571857
0.16800000000000012,0.9563088008577845,[-16.63602862],15.240931416521352,0.023962917594826466,0.0,0.28882620666414244,0.0,0.020719004838229343,-0.028882620666414244,-0.028882620666414244,-0.002071900483822934,-0.002071900483822934
0.17000000000000012,0.9334981953377793,[-15.67535337],15.441253140733842,0.023587720297908562,0.0,0.2850058912080449,0.0,0.019957293812322332,-0.028500589120804495,-0.028500589120804495,-0.001995729381232233,-0.001995729381232233
0.17200000000000013,0.912453638976442,[-14.78310417],15.632017136365231,0.02323500693621611,0.0,0.28130780713249465,0.0,0.019211841758123148,-0.028130780713249467,-0.028130780713249467,-0.0019211841758123148,-0.0019211841758123148
0.17400000000000013,0.8930516775472799,[-13.95446407],15.813925181535993,0.0229038014658132,0.0,0.2777289882116899,0.0,0.01848300986518079,-0.02777289882116899,-0.02777289882116899,-0.001848300986518079,-0.001848300986518079
0.17600000000000013,0.8751774591804286,[-13.18495419],15.987627789266199,0.02259314899923242,0.0,0.27426658592210706,0.0,0.017771056566424404,-0.027426658592210707,-0.027426658592210707,-0.0017771056566424405,-0.0017771056566424405
0.17800000000000013,0.8587241354348434,[-12.47041031],16.153727542821695,0.02230211663252221,0.0,0.2709177846568349,0.0,0.017076163197092774,-0.027091778465683492,-0.027091778465683492,-0.0017076163197092776,-0.0017076163197092776
0.18000000000000013,0.8435923113238809,[-11.806961],16.312782718627517,0.022029794261284798,0.0,0.267679797579361,0.0,0.016398477029766795,-0.0267679797579361,-0.0267679797579361,-0.0016398477029766795,-0.0016398477029766795
0.18200000000000013,0.8296895384089623,[-11.19100698],16.465310965898855,0.021775295376964633,0.0,0.26454986304539546,0.0,0.015738102339806246,-0.026454986304539546,-0.026454986304539546,-0.0015738102339806247,-0.0015738102339806247
0.18400000000000014,0.8169298376001826,[-10.61920219],16.611792397622576,0.021537757835745713,0.0,0.2615252472485115,0.0,0.015095083444657353,-0.02615252472485115,-0.02615252472485115,-0.0015095083444657353,-0.0015095083444657353
0.18600000000000014,0.8052332496523023,[-10.08843615],16.752672172914725,0.021316344572085557,0.0,0.25860324711380867,0.0,0.014469410023370335,-0.025860324711380868,-0.025860324711380868,-0.0014469410023370335,-0.0014469410023370335
0.18800000000000014,0.7945254166708864,[-9.59581762],16.88836293641443,0.021110244232758073,0.0,0.2557811875003934,0.0,0.01386103176061031,-0.025578118750039344,-0.025578118750039344,-0.001386103176061031,-0.001386103176061031
0.19000000000000014,0.7847371940905832,[-9.13865925],17.019247219080842,0.020918671720843475,0.0,0.2530565392540182,0.0,0.013269892030513049,-0.025305653925401822,-0.025305653925401822,-0.001326989203051305,-0.001326989203051305
0.19200000000000014,0.7758042911814775,[-8.71446342],17.14567962399272,0.020740868643760173,0.0,0.25042640003965283,0.0,0.012695807364943095,-0.025042640003965284,-0.025042640003965284,-0.0012695807364943095,-0.0012695807364943095
0.19400000000000014,0.7676669260419101,[-8.32090877],17.267988760417115,0.020576103668196705,0.0,0.24788831513182502,0.0,0.012138662420381922,-0.024788831513182504,-0.024788831513182504,-0.0012138662420381923,-0.0012138662420381923
0.19600000000000015,0.760269516963561,[-7.95583807],17.386479163339644,0.020423672726772382,0.0,0.24543972413652992,0.0,0.011598262080265194,-0.024543972413652995,-0.024543972413652995,-0.0011598262080265195,-0.0011598262080265195
0.19800000000000015,0.7535603834746212,[-7.61724668],17.50143276749205,0.020282899151269605,0.0,0.24307806753729108,0.0,0.011074395307519797,-0.024307806753729108,-0.024307806753729108,-0.0011074395307519797,-0.0011074395307519797
0.20000000000000015,0.7474914759664927,[-7.30327183],17.61311070629594,0.020153133673238167,0.0,0.24080081414023585,0.0,0.010566831752461172,-0.024080081414023586,-0.024080081414023586,-0.0010566831752461172,-0.0010566831752461172
0.20200000000000015,0.7420181208991817,[-7.01218258],17.721754783124442,0.02003375431849473,0.0,0.2386054619944162,0.0,0.010075311574725174,-0.023860546199441623,-0.023860546199441623,-0.0010075311574725173,-0.0010075311574725173
0.20400000000000015,0.7370987812872543,[-6.74237066],17.827588719354477,0.019924166195165235,0.0,0.23648954342006867,0.0,0.009599552631024556,-0.023648954342006867,-0.023648954342006867,-0.0009599552631024557,-0.0009599552631024557
0.20600000000000016,0.7326948350226092,[-6.49234177],17.930819400037404,0.01982380117702095,0.0,0.23445062376286793,0.0,0.009139259293271793,-0.023445062376286796,-0.023445062376286796,-0.0009139259293271793,-0.0009139259293271793
0.20800000000000016,0.7287703698851066,[-6.26070755],18.03163811435757,0.019732117492721274,0.0,0.23248630153229766,0.0,0.008694124491191571,-0.02324863015322977,-0.02324863015322977,-0.0008694124491191572,-0.0008694124491191572
0.21000000000000016,0.725291992524042,[-6.04617806],18.130221693122813,0.01964859923174279,0.0,0.23059421084247209,0.0,0.008263828298637485,-0.02305942108424721,-0.02305942108424721,-0.0008263828298637485,-0.0008263828298637485
0.21200000000000016,0.7222286499444364,[-5.84755481],18.22673352307413,0.01957275577510379,0.0,0.22877202448928008,0.0,0.007848039026796275,-0.02287720244892801,-0.02287720244892801,-0.0007848039026796275,-0.0007848039026796275
0.21400000000000016,0.7195514633596275,[-5.66372429],18.321324489312747,0.019504121158669976,0.0,0.22701745613395471,0.0,0.007446416726210106,-0.022701745613395472,-0.022701745613395472,-0.0007446416726210106,-0.0007446416726210106
0.21600000000000016,0.7172335740713087,[-5.49365192],18.414133877968077,0.019442253378577044,0.0,0.22532826180494683,0.0,0.007058615983519963,-0.022532826180494684,-0.022532826180494684,-0.0007058615983519963,-0.0007058615983519963
0.21800000000000017,0.7152500003585055,[-5.33637645],18.505290228805872,0.01938673364910013,0.0,0.22370224153244866,0.0,0.006684287120915221,-0.02237022415324487,-0.02237022415324487,-0.0006684287120915221,-0.0006684287120915221
0.22000000000000017,0.7135775043155147,[-5.19100469],18.59491212122684,0.01933716562248384,0.0,0.22213724119117534,0.0,0.0063230771089914746,-0.022213724119117536,-0.022213724119117536,-0.0006323077108991475,-0.0006323077108991475
0.22200000000000017,0.7121944679715716,[-5.0567067],18.68310890097008,0.019293174579223804,0.0,0.22063115419628243,0.0,0.0059746310622407085,-0.022063115419628243,-0.022063115419628243,-0.0005974631062240709,-0.0005974631062240709
0.22400000000000017,0.7110807782209708,[-4.93271125],18.76998135944864,0.019254406596855154,0.0,0.21918192284192928,0.0,0.005638593906120275,-0.02191819228419293,-0.02191819228419293,-0.0005638593906120275,-0.0005638593906120275
0.22600000000000017,0.7102177200020713,[-4.81830163],18.85562237191118,0.019220527705034397,0.0,0.21778753933655265,0.0,0.005314611640523487,-0.021778753933655266,-0.021778753933655266,-0.0005314611640523487,-0.0005314611640523487
0.22800000000000017,0.7095878770833252,[-4.71281174],18.94011749168823,0.01919122303408447,0.0,0.2164460467803587,0.0,0.005002332271832767,-0.021644604678035872,-0.021644604678035872,-0.0005002332271832767,-0.0005002332271832767
0.23000000000000018,0.7091750398851403,[-4.6156225],19.023545501171675,0.019166195963315574,0.0,0.2151555399539708,0.0,0.00470140668680701,-0.02151555399539708,-0.02151555399539708,-0.000470140668680701,-0.000470140668680701
0.23200000000000018,0.7089641198677422,[-4.5261584],19.105978924064814,0.01914516727465366,0.0,0.21391416592220786,0.0,0.004411489568034225,-0.021391416592220786,-0.021391416592220786,-0.0004411489568034225,-0.0004411489568034225
0.23400000000000018,0.708941070055086,[-4.4438845],19.18748450193316,0.019127874316458692,0.0,0.21272012436704935,0.0,0.004132240205056991,-0.021272012436704936,-0.021272012436704936,-0.00041322402050569915,-0.00041322402050569915
0.23600000000000018,0.7090928112595859,[-4.3683034],19.268123637864772,0.019114070181794233,0.0,0.21157166777240458,0.0,0.003863323152059674,-0.021157166777240458,-0.021157166777240458,-0.0003863323152059674,-0.0003863323152059674
0.23800000000000018,0.7094071635898924,[-4.29895265],19.347952807941184,0.01910352290474583,0.0,0.2104671014242676,0.0,0.0036044087634009192,-0.02104671014242676,-0.02104671014242676,-0.0003604408763400919,-0.0003604408763400919
0.24000000000000019,0.7098727828628382,[-4.23540215],19.427023942616138,0.01909601467774983,0.0,0.20940478323982714,0.0,0.003355173671262466,-0.020940478323982714,-0.020940478323982714,-0.00033551736712624663,-0.00033551736712624663
0.2420000000000002,0.7104791015777008,[-4.17725194],19.50538478024648,0.019091341092327678,0.0,0.2083831234910201,0.0,0.003115301221112774,-0.02083831234910201,-0.02083831234910201,-0.00031153012211127744,-0.00031153012211127744
0.2440000000000002,0.7112162741322251,[-4.12412994],19.58307919479142,0.019089310405118968,0.0,0.2074005842733398,0.0,0.0028844818006933436,-0.02074005842733398,-0.02074005842733398,-0.00028844818006933435,-0.00028844818006933435
0.2460000000000002,0.71207512597228,[-4.07569003],19.660147499077237,0.019089742830655173,0.0,0.20645567895435457,0.0,0.00266241312037233,-0.02064556789543546,-0.02064556789543546,-0.000266241312037233,-0.000266241312037233
0.2480000000000002,0.7130471063927988,[-4.03161015],19.73662672557981,0.019092469861887673,0.0,0.20554697141462955,0.0,0.0024488004059816863,-0.020554697141462956,-0.020554697141462956,-0.00024488004059816865,-0.00024488004059816865
0.25000000000000017,0.7141242447252044,[-3.99159061],19.812550885808246,0.019097333619120742,0.0,0.20467307527122733,0.0,0.0022433565691495874,-0.020467307527122735,-0.020467307527122735,-0.00022433565691495875,-0.00022433565691495875
0.25200000000000017,0.7152991096712863,[-3.95535245],19.88795120986389,0.019104186227675332,0.0,0.20383265291167293,0.0,0.0020458023048300807,-0.020383265291167296,-0.020383265291167296,-0.00020458023048300808,-0.00020458023048300808
0.25400000000000017,0.7165647715545229,[-3.92263602],19.9628563682269,0.019112889224343753,0.0,0.20302441453659872,0.0,0.001855866166420384,-0.020302441453659874,-0.020302441453659874,-0.0001855866166420384,-0.0001855866166420384
0.25600000000000017,0.717914767279166,[-3.89319957],20.037292675784556,0.01912331299245063,0.0,0.2022471170520532,0.0,0.0016732845762371924,-0.02022471170520532,-0.02022471170520532,-0.00016732845762371925,-0.00016732845762371925
0.2580000000000002,0.7193430677989219,[-3.86681798],20.111284280631825,0.0191353362251481,0.0,0.2014995629735868,0.0,0.0014978018213268214,-0.02014995629735868,-0.02014995629735868,-0.00014978018213268217,-0.00014978018213268217
0.2600000000000002,0.720844047915129,[-3.84328159],20.184853337860623,0.019148845416395378,0.0,0.2007805992410388,0.0,0.0013291700073488543,-0.020078059924103882,-0.020078059924103882,-0.00013291700073488543,-0.00013291700073488543
0.2620000000000002,0.7224124582348923,[-3.8223951],20.258020170033895,0.019163734378951757,0.0,0.20008911602465554,0.0,0.0011671489941929112,-0.020008911602465554,-0.020008911602465554,-0.00011671489941929113,-0.00011671489941929113
0.2640000000000002,0.7240433991331836,[-3.80397656],20.330803414770983,0.01917990378859857,0.0,0.19942404547050063,0.0,0.0010115062985882166,-0.019942404547050065,-0.019942404547050065,-0.00010115062985882167,-0.00010115062985882167
0.2660000000000002,0.7257322965723766,[-3.78785639],20.403220160857963,0.019197260753724753,0.0,0.19878436045830233,0.0,0.0008620169848037849,-0.019878436045830235,-0.019878436045830235,-8.62016984803785e-05,-8.62016984803785e-05
0.2680000000000002,0.7274748796452482,[-3.77387658],20.47528607375289,0.01921571840935132,0.0,0.1981690733369327,0.0,0.0007184635347279576,-0.019816907333693273,-0.019816907333693273,-7.184635347279575e-05,-7.184635347279575e-05
0.2700000000000002,0.7292671597158055,[-3.76188981],20.54701551061355,0.01923519553462246,0.0,0.1975772346307137,0.0,0.000580635698929956,-0.01975772346307137,-0.01975772346307137,-5.8063569892995604e-05,-5.8063569892995604e-05
0.2720000000000002,0.7311054110419107,[-3.75175874],20.61842162704152,0.019255616192767725,0.0,0.19700793182758303,0.0,0.0004483303560254542,-0.019700793182758303,-0.019700793182758303,-4.483303560254542e-05,-4.483303560254542e-05
0.2740000000000002,0.7329861527736322,[-3.74335529],20.689516474235507,0.019276909392521042,0.0,0.1964602880562394,0.0,0.00032135133146918266,-0.019646028805623942,-0.019646028805623942,-3.2135133146918265e-05,-3.2135133146918265e-05
0.2760000000000002,0.7349061322251321,[-3.73655999],20.760311089383922,0.019299008769985627,0.0,0.19593346088618396,0.0,0.00019950923936179756,-0.0195933460886184,-0.0195933460886184,-1.995092393617976e-05,-1.995092393617976e-05
0.2780000000000002,0.7368623093302679,[-3.7312614],20.830815578075473,0.019321852289931524,0.0,0.1954266410609943,0.0,8.262129398912919e-05,-0.019542664106099433,-0.019542664106099433,-8.262129398912919e-06,-8.262129398912919e-06
0.2800000000000002,0.7388518421940458,[-3.72735555],20.901039190589312,0.019345381965535244,0.0,0.19493905131973688,2.9488862673215956e-05,-0.0,-0.019493905131973688,-0.019493905131973688,2.9488862673215956e-06,2.9488862673215956e-06
0.2820000000000002,0.7408720736624655,[-3.7247454],20.970990391868693,0.01936954359558344,0.0,0.19446994520464939,0.00013699134688059862,-0.0,-0.01944699452046494,-0.01944699452046494,1.3699134688059863e-05,1.3699134688059863e-05
0.2840000000000002,0.742920518836284,[-3.72334037],21.040676925699234,0.019394286518194373,0.0,0.19401860587676037,0.00024005022355638272,-0.0,-0.01940186058767604,-0.01940186058767604,2.4005022355638274e-05,2.4005022355638274e-05
0.2860000000000002,0.7449948534604194,[-3.72305591],21.110105874164397,0.01941956338013641,0.0,0.19358434501640143,0.00033882368362194885,-0.0,-0.019358434501640143,-0.019358434501640143,3.3882368362194885e-05,3.3882368362194885e-05
0.2880000000000002,0.7470929031266673,[-3.72381306],21.17928371183532,0.019445329920853596,0.0,0.19316650169616997,0.0004334642364236781,-0.0,-0.019316650169617,-0.019316650169617,4.334642364236781e-05,4.334642364236781e-05
0.2900000000000002,0.7492126332300871,[-3.72553809],21.24821635598934,0.019471544770347522,0.0,0.1927644413335408,0.0005241188859983716,-0.0,-0.01927644413335408,-0.01927644413335408,5.241188859983717e-05,5.241188859983717e-05
0.2920000000000002,0.7513521396262206,[-3.72816211],21.316909212523186,0.01949816926009464,0.0,0.19237755462519188,0.0006109293194284634,-0.0,-0.01923775546251919,-0.01923775546251919,6.109293194284634e-05,6.109293194284634e-05
0.2940000000000002,0.7535096399375343,[-3.73162078],21.385367218266637,0.01952516724621804,0.0,0.19200525656398698,0.0006940320790179464,-0.0,-0.0192005256563987,-0.0192005256563987,6.940320790179464e-05,6.940320790179464e-05
0.2960000000000002,0.7556834654637499,[-3.73585397],21.453594879924893,0.019552504944168225,0.0,0.19164698544739472,0.0007735587434016659,-0.0,-0.019164698544739473,-0.019164698544739473,7.73558743401666e-05,7.73558743401666e-05
0.2980000000000002,0.7578720536517277,[-3.74080548],21.521596309849905,0.019580150774203935,0.0,0.1913022019461009,0.0008496360966801301,-0.0,-0.019130220194610092,-0.019130220194610092,8.496360966801302e-05,8.496360966801302e-05
